{
   "levels" : [
      {
         "biases" : [
            0.270275353802331,
            -0.309078899878729,
            0.0293719617693751,
            -0.271710697594067,
            -0.233012073410861,
            0.417192211256643
         ],
         "inputs" : [
            0.13969821815627,
            0,
            0,
            0,
            0.163245506996016
         ],
         "outputs" : [
            0,
            1,
            1,
            1,
            1,
            0
         ],
         "weights" : [
            [
               -0.0699373401553724,
               -0.314651175543054,
               0.336295422410231,
               0.439384511121602,
               -0.221008571635052,
               -0.00121538748721121
            ],
            [
               0.457777373608245,
               -0.3344329850181,
               0.229244671370127,
               -0.185799187473205,
               -0.526836564459691,
               0.318583436579152
            ],
            [
               -0.042647681318386,
               0.464341479522661,
               -0.0450948845382117,
               0.362705980326916,
               0.134284557854513,
               0.248906122141994
            ],
            [
               0.0241941980048901,
               0.341619801591772,
               -0.420230408994576,
               -0.0810456692969848,
               -0.0589222502053268,
               -0.68489327815598
            ],
            [
               -0.242100486732494,
               -0.214042204935582,
               -0.0472635839166519,
               0.408755399225277,
               0.301816401509808,
               0.0642005436888607
            ]
         ]
      },
      {
         "biases" : [
            -0.0214938681658481,
            -0.0363080665617821,
            -0.0486075675667776,
            0.41602165744494
         ],
         "inputs" : [
            0,
            1,
            1,
            1,
            1,
            0
         ],
         "outputs" : [
            1,
            1,
            1,
            0
         ],
         "weights" : [
            [
               0.219665826721028,
               -0.00644980795632243,
               0.270063504323639,
               -0.318888030718252
            ],
            [
               0.0851147089510759,
               0.0872859245723908,
               -0.459705991117938,
               0.146809183429509
            ],
            [
               -0.243530658140201,
               -0.00845919724758626,
               0.358383254479338,
               0.0475492043621029
            ],
            [
               0.0953310908936521,
               -0.187859280525603,
               0.202226644388496,
               0.00576228964752426
            ],
            [
               0.369076595376315,
               0.211603234697952,
               0.0559702616719071,
               0.101595782141174
            ],
            [
               0.236483850371977,
               -0.0470499062816639,
               -0.281715235651374,
               -0.102652957206116
            ]
         ]
      }
   ]
}
